digraph Tree {
node [shape=box, style="filled, rounded", color="black", fontname=helvetica] ;
edge [fontname=helvetica] ;
0 [label="petal width (cm) <= 0.8\ngini = 0.66\nsamples = 99\nvalue = [62, 44, 44]\nclass = setosa", fillcolor="#fbeadd"] ;
1 [label="gini = 0.0\nsamples = 39\nvalue = [62, 0, 0]\nclass = setosa", fillcolor="#e58139"] ;
0 -> 1 [labeldistance=2.5, labelangle=45, headlabel="True"] ;
2 [label="petal width (cm) <= 1.75\ngini = 0.5\nsamples = 60\nvalue = [0, 44, 44]\nclass = versicolor", fillcolor="#ffffff"] ;
0 -> 2 [labeldistance=2.5, labelangle=-45, headlabel="False"] ;
3 [label="sepal length (cm) <= 7.1\ngini = 0.16\nsamples = 32\nvalue = [0, 42, 4]\nclass = versicolor", fillcolor="#4ce78d"] ;
2 -> 3 ;
4 [label="petal length (cm) <= 5.3\ngini = 0.12\nsamples = 31\nvalue = [0, 42, 3]\nclass = versicolor", fillcolor="#47e78a"] ;
3 -> 4 ;
5 [label="gini = 0.0\nsamples = 30\nvalue = [0, 42, 0]\nclass = versicolor", fillcolor="#39e581"] ;
4 -> 5 ;
6 [label="gini = 0.0\nsamples = 1\nvalue = [0, 0, 3]\nclass = virginica", fillcolor="#8139e5"] ;
4 -> 6 ;
7 [label="gini = 0.0\nsamples = 1\nvalue = [0, 0, 1]\nclass = virginica", fillcolor="#8139e5"] ;
3 -> 7 ;
8 [label="petal length (cm) <= 4.85\ngini = 0.09\nsamples = 28\nvalue = [0, 2, 40]\nclass = virginica", fillcolor="#8743e6"] ;
2 -> 8 ;
9 [label="sepal width (cm) <= 3.1\ngini = 0.44\nsamples = 2\nvalue = [0, 2, 1]\nclass = versicolor", fillcolor="#9cf2c0"] ;
8 -> 9 ;
10 [label="gini = 0.0\nsamples = 1\nvalue = [0, 0, 1]\nclass = virginica", fillcolor="#8139e5"] ;
9 -> 10 ;
11 [label="gini = 0.0\nsamples = 1\nvalue = [0, 2, 0]\nclass = versicolor", fillcolor="#39e581"] ;
9 -> 11 ;
12 [label="gini = 0.0\nsamples = 26\nvalue = [0, 0, 39]\nclass = virginica", fillcolor="#8139e5"] ;
8 -> 12 ;
}